{"version": 1, "inputSize": 32, "hiddenSize": 12, "outputSize": 4, "w1": [-0.15821, -4e-05, 0.123, 0.11909, 0.5297, 0.02482, -0.02245, 0.05651, -0.46056, 0.02848, 0.05535, NaN, -0.00608, -5e-05, -0.1028, -0.0006, -0.28914, 0.16957, 0.21552, -0.2701, -0.17738, -0.06202, 0.00818, NaN, -0.07616, -0.0725, -0.20475, 0.05208, -0.03566, 0.43837, 0.05441, -0.03594, -0.01222, 0.0327, -0.10638, NaN, 0.11968, -0.04215, 0.35982, 0.00281, 0.01918, -0.10899, 0.0114, 0.11754, 0.0146, 0.14838, -0.06529, NaN, -0.07148, 0.08991, -0.05663, -0.01968, 0.09377, 0.07062, -0.3127, 0.15034, -0.17753, 0.03679, 0.00192, NaN, 0.10195, 0.0149, 0.14147, -0.03099, -0.20331, -0.06321, -0.08057, -0.01194, -0.16872, -0.01531, -0.03966, NaN, 0.00949, 0.13055, 0.09762, -0.06672, 0.00499, -0.11618, 0.21398, 0.03014, -0.30673, -0.07237, 0.0078, NaN, -0.01064, -0.22906, 0.01903, 0.11559, 0.11204, -0.0263, -0.09755, 0.06817, 0.06591, -0.13498, -0.23965, NaN, -0.23026, 3e-05, 0.01941, 0.20346, 0.10629, 0.15843, -0.07357, 0.12446, -0.06567, -0.04536, -0.1369, NaN, -0.21233, -0.10515, -0.06737, -0.29858, -0.277, 0.21487, -0.23542, 0.01995, 0.0626, 0.00947, 0.12761, NaN, -0.03011, -0.01038, 0.01836, 0.20782, 0.12479, -0.06539, -0.05433, 0.31415, -0.10749, -0.08951, -0.04289, NaN, 0.18012, -0.07198, -0.10337, 0.01299, -0.27419, -0.02446, 0.11026, 0.10369, 0.05884, 0.09953, -0.07918, NaN, 0.14082, -0.00233, 0.30688, -0.05132, 0.16982, 0.02201, -0.0455, -0.11692, -0.14402, 0.01469, -0.11068, NaN, -0.30599, 0.00247, -0.01918, 0.02808, 0.10272, 0.13586, 0.00224, -0.03436, 0.12327, -0.18675, 0.18023, NaN, 0.17848, 0.05064, -0.0039, 0.1944, 0.065, 0.27221, 0.08773, -0.02981, 0.13842, -0.13416, 0.09569, NaN, 0.09272, 0.00474, 0.0645, 0.05631, -0.13291, 0.05569, 0.09883, -0.212, -0.07386, 0.0891, 0.00793, NaN, -0.26443, 0.21804, 0.01873, -0.34546, -0.16053, 0.11311, 0.0939, -0.07912, -0.10187, -0.1, -0.24575, NaN, 0.27931, -0.18666, 0.17202, -0.14101, 0.27246, -0.23073, 0.12983, -0.09001, 0.11526, -0.13949, 0.18296, NaN, 0.11793, 0.3126, -0.32836, 0.19, -0.01465, -0.08095, 0.10678, 0.2154, 0.00208, -0.1485, 0.04122, NaN, 0.03026, -0.03298, -0.07367, -0.02912, 0.05294, 0.11337, -0.07001, 0.27767, -0.09618, -0.20415, 0.07143, NaN, -0.28798, 0.13051, -0.00673, 0.30299, -0.10211, 0.17166, -0.1354, 0.17767, 0.02363, -0.1993, 0.07387, NaN, -0.03702, 0.13803, -0.06536, -0.00067, -0.01017, -0.12435, 0.06905, -0.02892, 0.00057, -0.10227, -0.05125, NaN, -0.27687, -0.15569, 0.03191, 0.00543, -0.16774, -0.00218, 0.24218, 0.21728, 0.19802, 0.25445, 0.17909, NaN, -0.16892, 0.18062, -0.04975, -0.02869, 0.37147, -0.18497, -0.08969, -0.15616, -0.13242, -0.16811, -0.1326, NaN, -0.13908, -0.05937, 0.20313, -0.1231, -0.3492, 0.01647, -0.10497, 0.29299, -0.01486, -0.17264, -0.16108, NaN, -0.05389, 0.1008, 0.23384, 0.09024, -0.08351, -0.19126, 0.00293, -0.06115, 0.22921, 0.08923, -0.02961, NaN, 0.09996, -0.07549, -0.08575, -0.343, -0.07792, 0.1103, -0.12472, -0.0029, -0.12243, 0.07489, -0.27679, NaN, -0.03092, -0.24712, -0.03798, 0.05133, 0.08123, -0.00298, -0.02268, -0.06225, 0.1519, -0.07439, 0.10723, NaN, 0.06018, 0.14782, 0.32276, 0.0169, -0.19899, 0.20416, 0.01259, 0.02892, -0.0362, -0.13842, 0.0457, NaN, 0.2556, -0.25962, 0.21495, 0.1352, 0.21875, -0.02081, -0.13951, -0.04009, 0.01867, -0.37766, -0.08958, NaN, -0.11175, -0.00711, 0.05392, -0.22256, 0.00629, -0.10736, 0.47144, -0.12506, -0.10667, 0.17298, -0.21065, NaN, -0.05078, -0.39604, 0.07659, 0.00358, -0.02619, -0.0102, -0.22796, -0.22327, 0.01384, 0.11007, -0.16051, NaN], "b1": [0.0, 0.0, 0.0, 0.0, 0.0, 0.0, 0.0, 0.0, 0.0, 0.0, 0.0, NaN], "w2": [NaN, NaN, NaN, NaN, NaN, NaN, NaN, NaN, NaN, NaN, NaN, NaN, NaN, NaN, NaN, NaN, NaN, NaN, NaN, NaN, NaN, NaN, NaN, NaN, NaN, NaN, NaN, NaN, NaN, NaN, NaN, NaN, NaN, NaN, NaN, NaN, NaN, NaN, NaN, NaN, NaN, NaN, NaN, NaN, NaN, NaN, NaN, NaN], "b2": [NaN, NaN, NaN, NaN]}